svm_type c_svc
kernel_type rbf
gamma 0.1111111111111111
nr_class 2
total_sv 8
rho -0.19725609784745407
label 1 -1
probA -2.5672749911918178
probB -0.21982224193765001
nr_sv 5 3
SV
0.80000000000000004 1:-0.80265148 2:-1.1309937 3:-0.82220227 4:-0.51014407 5:0.41021878 6:-0.32025068 7:0.0054558675 8:-0.64573744 9:-0.57335932 
0.66300562400892593 1:0.45356754 2:0.65904015 3:-0.42736469 4:-1.5495438 5:1.6184624 6:2.46444 7:2.3019424 8:-0.66502292 9:-0.34678887 
0.019741564920906382 1:-0.26634259 2:-0.60131443 3:-0.54966991 4:-1.0604822 5:0.45057593 6:-0.13805363 7:0.43888345 8:-0.62395755 9:-1.6684008 
0.80000000000000004 1:1.828161 2:1.1368079 3:0.71216382 4:0.83583524 5:0.24243689 6:-0.40122714 7:-0.54925635 8:-0.53508953 9:1.6193718 
0.6525005303356004 1:0.58643686 2:-0.2131122 3:0.13586678 4:-0.38188969 5:0.57414852 6:-0.40122714 7:-0.54925635 8:-0.55071677 9:-0.58395222 
-1.2365372155589187 1:0.33036144 2:1.5945654 3:2.1422096 4:0.8887415 5:-1.0986142 6:-0.40122714 7:-0.54925635 8:2.1387801 9:0.51770979 
-1.3333333333333333 1:-0.97417369 2:-0.73907432 3:-0.68285842 4:0.8887415 5:-1.0986142 6:-0.40122714 7:-0.54925635 8:0.12565932 9:0.51770979 
-0.36537717037318085 1:-1.1553591 2:-0.70591888 3:-0.5081449 4:0.8887415 5:-1.0986142 6:-0.40122714 7:-0.54925635 8:0.75608475 9:0.51770979 
